svm_type c_svc
kernel_type rbf
gamma 0.125
nr_class 2
total_sv 157
rho -0.720257
label 2 1
nr_sv 122 35
SV
0.05216877173732891 1:0 2:0 3:0 4:28 5:1 6:1 7:1 8:28 
0.4923965740407698 1:0 2:5 3:6 4:27 5:4 6:6 7:2 8:28 
0.272008265946355 1:0 2:8 3:9 4:7 5:3 6:2 7:1 8:28 
0.2739191136764434 1:0 2:7 3:7 4:7 5:3 6:2 7:1 8:23 
0.1161310882258341 1:0 2:1 3:4 4:29 5:0 6:0 7:0 8:30 
0.2381116463388319 1:0 2:3 3:9 4:29 5:2 6:4 7:1 8:29 
0.3291877486037225 1:0 2:4 3:7 4:18 5:10 6:8 7:3 8:19 
0.1191064979441651 1:0 2:7 3:7 4:28 5:0 6:0 7:0 8:16 
0.08812483409318048 1:0 2:7 3:8 4:28 5:0 6:0 7:0 8:16 
0.2795444344883691 1:0 2:19 3:20 4:25 5:0 6:0 7:0 8:11 
0.2799785127067861 1:0 2:25 3:29 4:25 5:0 6:0 7:0 8:-8 
0.5317784490249765 1:0 2:3 3:4 4:27 5:0 6:0 7:0 8:28 
0.1124831948786346 1:0 2:9 3:7 4:27 5:0 6:0 7:0 8:16 
0.2770657981317379 1:0 2:9 3:7 4:21 5:0 6:0 7:0 8:7 
0.2796450949714196 1:0 2:4 3:13 4:21 5:0 6:0 7:0 8:7 
0.1726555985932502 1:0 2:3 3:9 4:26 5:2 6:4 7:1 8:28 
0.1577770374799739 1:0 2:4 3:6 4:24 5:5 6:3 7:1 8:27 
0.2821264433029329 1:0 2:8 3:13 4:22 5:4 6:11 7:2 8:19 
0.2798716177223418 1:0 2:14 3:13 4:16 5:10 6:9 7:3 8:15 
0.2776544874124861 1:0 2:10 3:14 4:12 5:4 6:7 7:2 8:11 
0.2739393893478457 1:0 2:4 3:3 4:8 5:1 6:2 7:1 8:7 
0.2761351519702472 1:0 2:4 3:2 4:8 5:8 6:6 7:1 8:3 
0.2793856239368234 1:0 2:4 3:13 4:8 5:11 6:7 7:2 8:3 
0.2029278456534643 1:0 2:2 3:6 4:30 5:1 6:2 7:1 8:29 
0.2751769981640164 1:0 2:4 3:7 4:27 5:2 6:1 7:1 8:28 
0.116501507185859 1:0 2:5 3:9 4:25 5:3 6:3 7:1 8:25 
0.2381634482861394 1:0 2:7 3:11 4:22 5:3 6:3 7:1 8:23 
0.1902186653956723 1:0 2:8 3:9 4:9 5:0 6:0 7:0 8:13 
0.2180660497625334 1:0 2:7 3:7 4:9 5:0 6:0 7:0 8:8 
0.3027578677019296 1:0 2:11 3:14 4:4 5:0 6:0 7:0 8:1 
0.2889232787165666 1:0 2:0 3:0 4:26 5:0 6:0 7:0 8:30 
0.4919012538746483 1:0 2:3 3:4 4:26 5:0 6:0 7:0 8:30 
0.2630779117493341 1:0 2:6 3:6 4:26 5:0 6:0 7:0 8:30 
0.3744347772270696 1:0 2:7 3:7 4:24 5:0 6:0 7:0 8:27 
0.2273775218139556 1:0 2:11 3:14 4:27 5:3 6:8 7:1 8:20 
0.2546419366481068 1:0 2:7 3:9 4:21 5:0 6:0 7:0 8:16 
0.2752733461289871 1:0 2:13 3:10 4:21 5:0 6:0 7:0 8:13 
0.279466717561154 1:0 2:16 3:13 4:21 5:0 6:0 7:0 8:0 
0.1339538553653023 1:0 2:2 3:5 4:26 5:3 6:4 7:2 8:30 
0.2605485364528244 1:0 2:7 3:9 4:23 5:3 6:4 7:2 8:30 
0.08519783674676805 1:0 2:2 3:2 4:30 5:0 6:0 7:0 8:28 
0.3183636328921363 1:0 2:8 3:12 4:28 5:2 6:1 7:1 8:28 
0.2747492955312735 1:0 2:16 3:9 4:28 5:0 6:0 7:0 8:13 
0.1836069294784185 1:0 2:2 3:7 4:29 5:0 6:0 7:0 8:28 
0.6351564005438424 1:0 2:4 3:12 4:29 5:3 6:3 7:1 8:26 
0.5057820452320126 1:0 2:7 3:9 4:26 5:3 6:3 7:1 8:24 
0.2670130185631857 1:0 2:10 3:12 4:23 5:5 6:5 7:1 8:19 
0.2799373256715675 1:0 2:11 3:9 4:18 5:2 6:4 7:1 8:8 
0.280087377060641 1:0 2:15 3:12 4:18 5:8 6:8 7:1 8:3 
0.1636502427260124 1:0 2:4 3:5 4:29 5:0 6:0 7:0 8:25 
0.2133297520001695 1:0 2:11 3:15 4:29 5:3 6:8 7:1 8:21 
0.2841272425414972 1:0 2:15 3:17 4:26 5:7 6:7 7:1 8:14 
0.3017054286539121 1:0 2:5 3:6 4:19 5:3 6:2 7:1 8:14 
0.2785753599815507 1:0 2:8 3:15 4:16 5:11 6:10 7:2 8:9 
0.275918710563592 1:0 2:11 3:16 4:5 5:7 6:8 7:2 8:3 
0.2799030795531943 1:0 2:14 3:15 4:5 5:4 6:3 7:1 8:-8 
0.2431197936362771 1:0 2:4 3:5 4:28 5:1 6:3 7:1 8:25 
0.2924479275072864 1:0 2:9 3:13 4:27 5:8 6:10 7:2 8:18 
0.2797998359400376 1:0 2:0 3:0 4:19 5:3 6:4 7:1 8:18 
0.9542948739875285 1:0 2:2 3:2 4:30 5:0 6:0 7:0 8:28 
0.04358390059775535 1:0 2:0 3:0 4:28 5:0 6:0 7:0 8:28 
0.1089058209035847 1:0 2:8 3:13 4:28 5:0 6:0 7:0 8:28 
0.6751698838415265 1:0 2:7 3:8 4:28 5:0 6:0 7:0 8:28 
0.3641337559006197 1:0 2:11 3:11 4:28 5:5 6:5 7:1 8:25 
0.2474060557684818 1:0 2:11 3:12 4:23 5:7 6:7 7:1 8:16 
0.2775666543170967 1:0 2:8 3:18 4:16 5:7 6:7 7:1 8:12 
0.280080159141981 1:0 2:5 3:7 4:16 5:11 6:6 7:2 8:12 
0.2769704055052356 1:0 2:3 3:4 4:6 5:6 6:2 7:1 8:9 
0.2716584935264932 1:0 2:10 3:6 4:6 5:4 6:6 7:1 8:12 
0.279583894045048 1:0 2:10 3:2 4:6 5:0 6:0 7:0 8:2 
0.2798675129053039 1:0 2:0 3:0 4:6 5:0 6:0 7:0 8:2 
0.2759468462806421 1:0 2:2 3:6 4:6 5:8 6:7 7:1 8:0 
0.00452927275270254 1:0 2:0 3:0 4:30 5:0 6:0 7:0 8:30 
0.1677881478785834 1:0 2:1 3:3 4:27 5:2 6:1 7:1 8:29 
0.02740069953146943 1:0 2:2 3:7 4:25 5:3 6:3 7:1 8:28 
0.2002240144340749 1:0 2:4 3:6 4:20 5:3 6:3 7:1 8:27 
0.2487994400169845 1:0 2:6 3:8 4:20 5:5 6:5 7:1 8:26 
0.3232889497928524 1:0 2:8 3:13 4:15 5:8 6:11 7:2 8:20 
0.2238613375965635 1:0 2:13 3:14 4:7 5:9 6:9 7:2 8:10 
0.2330125777574054 1:0 2:8 3:9 4:7 5:7 6:6 7:2 8:10 
0.2207968660555005 1:0 2:12 3:15 4:7 5:7 6:7 7:1 8:10 
0.2155150260958934 1:0 2:8 3:8 4:7 5:0 6:0 7:0 8:6 
0.2783558062827847 1:0 2:7 3:15 4:7 5:0 6:0 7:0 8:8 
0.2762104684702413 1:0 2:7 3:15 4:7 5:4 6:8 7:1 8:1 
0.2794089224909632 1:0 2:11 3:20 4:7 5:4 6:8 7:1 8:-3 
0.6618789893973426 1:0 2:3 3:7 4:30 5:1 6:2 7:1 8:29 
0.4278526977425275 1:0 2:4 3:8 4:29 5:0 6:0 7:0 8:26 
0.3111147599026416 1:0 2:9 3:12 4:28 5:0 6:0 7:0 8:24 
0.236434592294912 1:0 2:10 3:10 4:28 5:0 6:0 7:0 8:14 
0.2788798744287181 1:0 2:15 3:16 4:22 5:0 6:0 7:0 8:7 
0.2798602414046925 1:0 2:9 3:13 4:22 5:0 6:0 7:0 8:-6 
0.8704124794525954 1:0 2:4 3:8 4:30 5:1 6:3 7:1 8:27 
0.5964704082724817 1:0 2:5 3:7 4:28 5:0 6:0 7:0 8:23 
0.3053901563354049 1:0 2:8 3:10 4:25 5:0 6:0 7:0 8:18 
0.2629488071019314 1:0 2:11 3:13 4:25 5:0 6:0 7:0 8:17 
0.2427779281338402 1:0 2:15 3:12 4:25 5:0 6:0 7:0 8:17 
0.2787602035831487 1:0 2:14 3:10 4:25 5:0 6:0 7:0 8:5 
0.04322330655142301 1:0 2:2 3:4 4:30 5:0 6:0 7:0 8:30 
0.1319948970296864 1:0 2:6 3:6 4:30 5:0 6:0 7:0 8:24 
0.1654782286024845 1:0 2:3 3:9 4:30 5:0 6:0 7:0 8:24 
0.2811995739305085 1:0 2:8 3:19 4:30 5:4 6:6 7:1 8:24 
0.2064055481155296 1:0 2:10 3:6 4:30 5:0 6:0 7:0 8:24 
0.212090688673608 1:0 2:12 3:5 4:30 5:0 6:0 7:0 8:22 
0.391053501936072 1:0 2:4 3:7 4:30 5:1 6:3 7:1 8:20 
0.1626054436562457 1:0 2:0 3:0 4:30 5:0 6:0 7:0 8:30 
0.9775408405624256 1:0 2:1 3:3 4:30 5:1 6:2 7:1 8:30 
1 1:0 2:1 3:3 4:27 5:2 6:1 7:1 8:29 
0.17174780462228 1:0 2:3 3:4 4:25 5:2 6:3 7:1 8:29 
0.08424204670085797 1:0 2:5 3:7 4:23 5:2 6:4 7:1 8:29 
0.3109795065624007 1:0 2:3 3:4 4:20 5:0 6:0 7:0 8:29 
0.4911475196006051 1:0 2:10 3:11 4:20 5:7 6:7 7:1 8:29 
0.2658776715100027 1:0 2:4 3:7 4:16 5:3 6:3 7:1 8:29 
0.2791244913830901 1:0 2:0 3:0 4:8 5:0 6:0 7:0 8:29 
0.2758354316208124 1:0 2:5 3:6 4:6 5:0 6:0 7:0 8:29 
0.2638780602451372 1:0 2:7 3:3 4:6 5:0 6:0 7:0 8:17 
0.2758215078431294 1:0 2:3 3:4 4:6 5:3 6:3 7:1 8:20 
0.3773919975909921 1:0 2:7 3:7 4:6 5:0 6:0 7:0 8:14 
0.2911135452156167 1:0 2:4 3:12 4:6 5:1 6:2 7:1 8:13 
0.2462308496527101 1:0 2:6 3:9 4:6 5:8 6:8 7:1 8:12 
0.1718509675934295 1:0 2:8 3:9 4:6 5:0 6:0 7:0 8:12 
0.2795377901446472 1:0 2:18 3:13 4:4 5:0 6:0 7:0 8:4 
0.2794097296433578 1:0 2:20 3:15 4:4 5:0 6:0 7:0 8:-6 
-1 1:0 2:8 3:14 4:20 5:7 6:7 7:2 8:28 
-1 1:0 2:9 3:9 4:16 5:7 6:6 7:2 8:28 
-1 1:0 2:1 3:3 4:30 5:1 6:2 7:1 8:30 
-1 1:0 2:7 3:14 4:27 5:7 6:9 7:2 8:23 
-1 1:0 2:9 3:16 4:20 5:10 6:11 7:3 8:19 
-1 1:0 2:14 3:10 4:8 5:11 6:12 7:3 8:22 
-1 1:0 2:8 3:17 4:6 5:10 6:22 7:3 8:18 
-1 1:0 2:3 3:7 4:30 5:1 6:2 7:1 8:29 
-1 1:0 2:4 3:9 4:29 5:1 6:3 7:1 8:25 
-1 1:0 2:6 3:10 4:28 5:1 6:3 7:1 8:20 
-1 1:0 2:15 3:15 4:28 5:4 6:6 7:1 8:19 
-1 1:0 2:4 3:8 4:29 5:5 6:5 7:2 8:28 
-1 1:0 2:6 3:7 4:27 5:0 6:0 7:0 8:25 
-1 1:0 2:1 3:3 4:26 5:2 6:1 7:1 8:29 
-1 1:0 2:1 3:4 4:26 5:0 6:0 7:0 8:29 
-1 1:0 2:7 3:15 4:19 5:8 6:11 7:2 8:23 
-1 1:0 2:12 3:11 4:8 5:0 6:0 7:0 8:-1 
-1 1:0 2:11 3:15 4:19 5:4 6:4 7:1 8:21 
-1 1:0 2:8 3:8 4:15 5:3 6:2 7:1 8:13 
-1 1:0 2:8 3:8 4:19 5:0 6:0 7:0 8:30 
-1 1:0 2:10 3:11 4:19 5:0 6:0 7:0 8:27 
-1 1:0 2:3 3:3 4:19 5:0 6:0 7:0 8:24 
-1 1:0 2:4 3:6 4:19 5:7 6:5 7:1 8:19 
-1 1:0 2:7 3:7 4:10 5:12 6:10 7:2 8:14 
-1 1:0 2:8 3:9 4:28 5:2 6:4 7:1 8:28 
-1 1:0 2:9 3:12 4:28 5:2 6:1 7:1 8:19 
-1 1:0 2:2 3:2 4:30 5:0 6:0 7:0 8:28 
-1 1:0 2:7 3:13 4:27 5:5 6:5 7:1 8:25 
-1 1:0 2:4 3:13 4:13 5:7 6:8 7:2 8:18 
-1 1:0 2:7 3:7 4:6 5:13 6:15 7:4 8:13 
-1 1:0 2:5 3:6 4:28 5:0 6:0 7:0 8:28 
-1 1:0 2:6 3:10 4:29 5:1 6:3 7:1 8:25 
-1 1:0 2:6 3:13 4:20 5:3 6:8 7:1 8:29 
-1 1:0 2:12 3:9 4:6 5:0 6:0 7:0 8:24 
-1 1:0 2:4 3:7 4:6 5:0 6:0 7:0 8:12 
